digraph Tree {
node [shape=box] ;
0 [label="X[0] <= -0.3531\nentropy = 1.5802\nsamples = 105\nvalue = [31, 37, 37]"] ;
1 [label="X[1] <= -0.4958\nentropy = 0.9814\nsamples = 42\nvalue = [30, 11, 1]"] ;
0 -> 1 [labeldistance=2.5, labelangle=45, headlabel="True"] ;
2 [label="X[0] <= -1.0766\nentropy = 0.8167\nsamples = 12\nvalue = [1, 10, 1]"] ;
1 -> 2 ;
3 [label="X[0] <= -1.3781\nentropy = 1.585\nsamples = 3\nvalue = [1, 1, 1]"] ;
2 -> 3 ;
4 [label="entropy = 0.0\nsamples = 1\nvalue = [1, 0, 0]"] ;
3 -> 4 ;
5 [label="entropy = 1.0\nsamples = 2\nvalue = [0, 1, 1]"] ;
3 -> 5 ;
6 [label="entropy = 0.0\nsamples = 9\nvalue = [0, 9, 0]"] ;
2 -> 6 ;
7 [label="X[0] <= -0.5943\nentropy = 0.2108\nsamples = 30\nvalue = [29, 1, 0]"] ;
1 -> 7 ;
8 [label="entropy = 0.0\nsamples = 26\nvalue = [26, 0, 0]"] ;
7 -> 8 ;
9 [label="X[1] <= 0.4728\nentropy = 0.8113\nsamples = 4\nvalue = [3, 1, 0]"] ;
7 -> 9 ;
10 [label="entropy = 0.0\nsamples = 1\nvalue = [0, 1, 0]"] ;
9 -> 10 ;
11 [label="entropy = 0.0\nsamples = 3\nvalue = [3, 0, 0]"] ;
9 -> 11 ;
12 [label="X[0] <= 1.4556\nentropy = 1.0832\nsamples = 63\nvalue = [1, 26, 36]"] ;
0 -> 12 [labeldistance=2.5, labelangle=-45, headlabel="False"] ;
13 [label="X[1] <= 0.5938\nentropy = 1.1162\nsamples = 53\nvalue = [1, 26, 26]"] ;
12 -> 13 ;
14 [label="X[0] <= 0.3704\nentropy = 0.9918\nsamples = 47\nvalue = [0, 26, 21]"] ;
13 -> 14 ;
15 [label="entropy = 0.9183\nsamples = 24\nvalue = [0, 16, 8]"] ;
14 -> 15 ;
16 [label="entropy = 0.9877\nsamples = 23\nvalue = [0, 10, 13]"] ;
14 -> 16 ;
17 [label="X[0] <= 0.1895\nentropy = 0.65\nsamples = 6\nvalue = [1, 0, 5]"] ;
13 -> 17 ;
18 [label="entropy = 0.0\nsamples = 1\nvalue = [1, 0, 0]"] ;
17 -> 18 ;
19 [label="entropy = 0.0\nsamples = 5\nvalue = [0, 0, 5]"] ;
17 -> 19 ;
20 [label="entropy = 0.0\nsamples = 10\nvalue = [0, 0, 10]"] ;
12 -> 20 ;
}